34 128
34 -0.058069285 -0.13881184 0.096365176 0.05479181 0.10923378 -0.09002776 0.11201931 0.05228885 -0.0686476 0.035291545 -0.08426276 0.046900798 0.045758795 -0.14267784 -0.067634284 -0.1932541 0.020828536 -0.0770717 0.05096908 0.07749157 0.18372822 0.033512935 0.09109441 0.066593826 -0.01898069 0.054474402 -0.031327467 0.061202478 0.026698137 0.14334974 -0.14366701 0.031024102 -0.081096336 0.11440052 -0.12642515 -0.1841635 0.31666994 0.0113614295 0.030697165 -0.04756897 -0.14022051 0.038363077 0.049808048 0.22717692 0.020211205 0.12512298 -0.05949879 -0.03708255 -0.13084298 0.034552973 0.04044716 0.054544874 0.115168385 0.11399563 -0.20163696 -0.052287243 -0.097577475 -0.008645081 -0.1341231 -0.04550433 0.090680175 -0.20826666 -0.06235577 0.124324284 0.09242967 -0.1578644 -0.033246897 0.009165144 0.046016607 -0.055438563 -0.061226826 0.0007840945 -0.0025577883 -0.09084202 0.0472709 -0.02214391 0.11517726 -0.022655224 0.0043497337 0.092238195 -0.039843775 -0.2610752 0.032511685 -0.17457578 -0.14958638 0.3170993 0.023504553 0.031290215 -0.048627984 0.0070801624 0.05458766 -0.015784815 -0.032583605 -0.10710203 -0.108142704 0.17283168 -0.17109166 -0.00095906254 0.046846796 -0.11322943 -0.19431798 0.09569749 -0.04326897 -0.037329137 0.008306742 0.075619 0.19249044 -0.03256788 -0.05883433 -0.036591478 0.008058688 -0.1271606 -0.04051854 0.026673032 -0.09506253 -0.037133146 -0.11170985 0.15006743 -0.0064693983 -0.027200475 -0.055670958 -0.15453282 -0.030163854 -0.20948061 0.09211847 0.037371915 -0.0039574555 0.08013712
1 -0.09513759 -0.23851176 0.087321885 0.049280163 0.10067746 -0.15831639 0.123786494 0.15153876 0.08704163 0.03291314 -0.057753354 0.09682515 0.027213681 -0.17855822 0.033050228 -0.2821052 0.008433538 -0.16092925 0.050669774 0.0038916997 0.23466042 -0.015330061 0.07482972 0.089255095 0.09390522 0.05414739 0.0043285494 0.0783992 0.08055167 0.12313137 -0.18082282 0.018444993 -0.06432189 0.1125924 -0.08558214 -0.21760285 0.27824688 0.03640711 0.035373595 -0.027709285 -0.12231688 -0.016601097 0.066421434 0.25364056 -0.048326787 0.14538515 0.009824717 -0.034600824 -0.037325874 0.08686172 -0.0744687 0.060009934 0.10878395 0.16178618 -0.24200295 -0.07936777 -0.09329381 -0.0018633773 -0.101546414 -0.063069366 0.13594948 -0.21846244 -0.04658701 0.13489446 0.010132723 -0.072473 -0.027646324 0.02419784 0.063413665 -0.113017164 -0.11322038 -0.038319062 -0.02374907 -0.09584332 0.14174843 0.028208215 0.14319776 -0.07509011 0.0130301155 -0.07998541 -0.066388115 -0.13741569 0.016888142 -0.12123548 -0.19755502 0.113284305 0.13083588 -0.022226498 0.009373378 0.03384943 0.09926508 -0.063800015 0.028310843 -0.05757822 -0.1610558 0.1070864 -0.12338681 -0.13282324 0.09116062 0.01903884 -0.1645232 0.07910199 -0.1227159 -0.014962767 -0.01797443 0.04665789 0.15400949 -0.063907236 -0.057709206 -0.08848779 0.01694571 -0.037727885 -0.0044976813 0.03534745 -0.16555174 -0.008425261 -0.063819036 0.16831407 -0.037231263 -0.08121957 -0.036238346 -0.100773655 0.070258975 -0.20299743 -0.050742034 -0.05976287 0.011736068 0.12380266
33 -0.05342457 -0.13330282 0.08584469 0.058009814 0.10312591 -0.08332484 0.105682045 0.053171493 -0.052579876 0.03131898 -0.07589151 0.046682008 0.04450779 -0.13400382 -0.06472023 -0.17599043 0.019417178 -0.08076975 0.04205763 0.07996396 0.18687886 0.030076101 0.09646164 0.06973668 -0.014899706 0.05148484 -0.043280706 0.050667223 0.01818596 0.14166838 -0.14311756 0.035803232 -0.07617425 0.10660608 -0.13512832 -0.1961177 0.31552106 0.00828085 0.019260436 -0.05433647 -0.15101759 0.038872197 0.0521486 0.22845972 0.017561276 0.13078503 -0.061433237 -0.032716665 -0.1303718 0.034516163 0.03926425 0.06880601 0.11435841 0.106415704 -0.19560076 -0.049147945 -0.10081667 -0.008398305 -0.12934023 -0.046684463 0.09969921 -0.22046934 -0.056681413 0.1301756 0.09419772 -0.15964103 -0.030648807 0.016147139 0.041475777 -0.054309253 -0.054774147 0.0002772385 0.0010072795 -0.09430013 0.048353426 -0.023308467 0.113053404 -0.026514612 0.0016549237 0.08998994 -0.035366364 -0.26259822 0.037453942 -0.17485912 -0.16137972 0.31416374 0.020709759 0.031946212 -0.0457012 0.00901839 0.061075144 -0.01639657 -0.024172893 -0.09907523 -0.10635572 0.18144283 -0.1672087 -0.00661081 0.059857745 -0.11331929 -0.20362546 0.099650905 -0.04560056 -0.033292428 0.010908339 0.07693518 0.19504261 -0.029279223 -0.05700754 -0.033237223 0.008268162 -0.12970757 -0.041715574 0.017426448 -0.09427627 -0.037415426 -0.1141787 0.14677823 -0.009644208 -0.03180258 -0.05184649 -0.1506784 -0.029878702 -0.21609196 0.09228833 0.034177493 -0.009060246 0.083997875
3 -0.07942927 -0.19248217 0.089992285 0.052413885 0.10232957 -0.12599088 0.117356606 0.10857022 0.017358588 0.030759273 -0.06373358 0.07314658 0.02939193 -0.16289364 -0.008235845 -0.2441639 0.015469488 -0.13096003 0.04872611 0.035031613 0.21399404 0.0071238093 0.081712514 0.08574764 0.049964674 0.054718684 -0.015590021 0.073733665 0.062140986 0.13745019 -0.16887079 0.019919232 -0.073156 0.11624239 -0.106028296 -0.20728521 0.29895028 0.028868249 0.031061964 -0.03399958 -0.12959981 0.0036924912 0.05837398 0.24466076 -0.019543562 0.14149539 -0.015665168 -0.036800865 -0.08227844 0.06305992 -0.022427412 0.053592082 0.10639654 0.14180943 -0.22577332 -0.06896689 -0.09449421 -0.006571545 -0.11632543 -0.05194178 0.11291409 -0.2099187 -0.051412962 0.13457584 0.043902416 -0.11207365 -0.028110329 0.023243837 0.055834264 -0.093482085 -0.0902895 -0.018317519 -0.01692608 -0.093157254 0.105945185 0.007297455 0.1363029 -0.053201843 0.011301447 -0.007717991 -0.054385602 -0.18826394 0.023358714 -0.14553097 -0.17886336 0.20521493 0.09004359 4.9750462e-05 -0.018819334 0.018727403 0.07955865 -0.04221977 0.005019222 -0.080655746 -0.1443818 0.14054509 -0.14800876 -0.07751852 0.07545172 -0.038830306 -0.18281266 0.086246334 -0.09645027 -0.023722311 -0.004375608 0.063405044 0.17106141 -0.05183648 -0.05418796 -0.07054138 0.015925363 -0.07575464 -0.018307721 0.029615913 -0.13751759 -0.01692576 -0.08734845 0.16471681 -0.020068508 -0.062283114 -0.046911016 -0.13246405 0.027711956 -0.21437442 0.008409184 -0.019969232 0.003330019 0.10877288
2 -0.07014536 -0.18648937 0.092915595 0.047502354 0.10432595 -0.12114348 0.11782053 0.10426625 -0.0031749129 0.035034668 -0.07272651 0.07345883 0.036165074 -0.16380194 -0.016536148 -0.24047635 0.008117572 -0.10969875 0.04764352 0.036411908 0.20584583 0.0145791955 0.08008312 0.07547461 0.027539326 0.061165933 -0.011731518 0.076214746 0.060252007 0.13049226 -0.1615172 0.018736321 -0.074930914 0.12084325 -0.103662744 -0.19124633 0.29161212 0.017224727 0.03581549 -0.034799438 -0.12086272 0.011665899 0.05620314 0.23343898 -0.010460019 0.13186294 -0.027158372 -0.03776559 -0.087790415 0.052622266 -0.013959942 0.043714765 0.113887444 0.14064167 -0.22413802 -0.060957093 -0.09352572 -0.0022786325 -0.121511884 -0.04940868 0.10775187 -0.20776477 -0.055590548 0.12101354 0.054319914 -0.11043503 -0.029235227 0.0126667945 0.0479332 -0.08392327 -0.08510679 -0.01752688 -0.005691187 -0.09253792 0.089093074 0.008930082 0.13369142 -0.051782496 0.007714509 0.0085881855 -0.05081073 -0.19911198 0.016390529 -0.14253816 -0.16293351 0.21984702 0.074585706 0.003818455 -0.015112437 0.015252682 0.078436986 -0.034489006 -0.007968334 -0.08860738 -0.1334235 0.13491847 -0.14820889 -0.065741435 0.05877355 -0.04509211 -0.16627975 0.074085206 -0.07558716 -0.027056405 -0.003978083 0.054294895 0.16974975 -0.042530384 -0.062528655 -0.062725924 0.008040671 -0.07924735 -0.02015945 0.027556758 -0.12350925 -0.021232562 -0.085755534 0.15293908 -0.022322921 -0.053624112 -0.047213223 -0.12850364 0.018014917 -0.20003499 0.031770844 -0.009566179 0.0077093644 0.09442682
4 -0.07111666 -0.17725767 0.08635901 0.049874835 0.10128741 -0.119629346 0.107053794 0.10318032 0.0094308155 0.029883867 -0.061802156 0.07103844 0.03592688 -0.15386063 -0.013774073 -0.22902049 0.011956043 -0.11734976 0.04927156 0.040485125 0.20549773 0.009581238 0.07657974 0.07597576 0.03661327 0.058929384 -0.016894454 0.071526185 0.05835796 0.12738061 -0.16304293 0.019006819 -0.070213296 0.11290492 -0.10483259 -0.19781625 0.29137748 0.023117686 0.031705134 -0.034774665 -0.12466395 0.005254587 0.057425275 0.23686863 -0.010173264 0.13257809 -0.025335198 -0.036587264 -0.084603034 0.051753204 -0.016305061 0.04823717 0.1092124 0.13646102 -0.21762364 -0.059475455 -0.08939294 -0.0062706526 -0.11433397 -0.053841334 0.1137709 -0.20835003 -0.05014703 0.1252681 0.050613318 -0.10572066 -0.032789875 0.019699672 0.04912842 -0.08389558 -0.08456039 -0.015773375 -0.0076421094 -0.09502281 0.094895594 0.0055578398 0.13074924 -0.047486387 0.0057087997 0.0069840513 -0.048305396 -0.19625415 0.02194756 -0.13954988 -0.16682361 0.20689365 0.081551686 -0.00019628735 -0.014148996 0.01822892 0.07419082 -0.03944213 -0.0037426408 -0.08375402 -0.13201421 0.13583909 -0.14564133 -0.07075414 0.06611511 -0.04518514 -0.17502803 0.080603294 -0.07786091 -0.018877603 -0.005792221 0.060629718 0.1641887 -0.043488055 -0.05861944 -0.06373333 0.015038333 -0.08000148 -0.018909609 0.028499186 -0.12536614 -0.017536586 -0.084771134 0.15212888 -0.021593282 -0.056027565 -0.042009186 -0.12408382 0.016372046 -0.20292556 0.019851461 -0.012945419 0.005248993 0.09891167
32 -0.06669201 -0.16207464 0.07874479 0.050723754 0.09789246 -0.10040607 0.10835768 0.07789063 -0.013662576 0.030720403 -0.07070458 0.06249396 0.035789896 -0.1394226 -0.03647116 -0.20172635 0.019257307 -0.11035292 0.044096526 0.060920186 0.2000619 0.020155435 0.08581884 0.07593722 0.015076895 0.05411701 -0.03279101 0.064641364 0.038829453 0.13391991 -0.15516995 0.028048785 -0.0642209 0.10568907 -0.12162979 -0.19690974 0.29970703 0.020773225 0.0222831 -0.049591854 -0.1424206 0.019405266 0.051532008 0.2289447 -0.0026664324 0.13120455 -0.035013814 -0.027401606 -0.099320605 0.042183228 0.0034120737 0.0603302 0.10317209 0.123705715 -0.20440786 -0.057441957 -0.09336022 -0.0074696927 -0.11985116 -0.050866045 0.10381662 -0.20809364 -0.0533119 0.13017464 0.05814874 -0.12841453 -0.03254203 0.02507721 0.04084864 -0.07438096 -0.07520972 -0.0052791745 -0.0028814254 -0.09228711 0.07053094 -0.0063564265 0.11630458 -0.03519005 0.0034533395 0.036864873 -0.043686505 -0.21767198 0.03580144 -0.1493668 -0.16274633 0.24793997 0.055857148 0.014255859 -0.027675835 0.0071704653 0.06590605 -0.026533928 -0.003264415 -0.0868059 -0.11593617 0.15007302 -0.144926 -0.04201323 0.058984492 -0.07785981 -0.18020755 0.08633422 -0.06945505 -0.028464105 0.0075547462 0.07292454 0.17600743 -0.038388666 -0.057755925 -0.04388951 0.01065694 -0.100342676 -0.023508057 0.026822668 -0.10714189 -0.024908882 -0.093658 0.15029913 -0.0103512425 -0.048922583 -0.047541983 -0.13613668 -0.006416992 -0.20255247 0.05144311 0.0025405544 -0.010229451 0.09373106
24 -0.057164416 -0.14702924 0.09262967 0.057297766 0.104310945 -0.09348846 0.10985627 0.06354434 -0.0421784 0.033687588 -0.075003676 0.0527629 0.047093485 -0.1421107 -0.05863736 -0.19742118 0.01883583 -0.093806416 0.05068364 0.072369695 0.19290265 0.027392589 0.09203167 0.079575986 -0.0019217834 0.056883316 -0.037663665 0.05491578 0.02418902 0.14269507 -0.1514775 0.030766496 -0.07926462 0.10432774 -0.12690021 -0.19847904 0.3174307 0.010878653 0.024382876 -0.05742191 -0.14637175 0.032819852 0.051254466 0.23639213 0.012582116 0.13506758 -0.05555839 -0.027751379 -0.11820623 0.037750807 0.029955568 0.06483349 0.10860192 0.120709024 -0.19806702 -0.05212296 -0.094658144 -0.009208283 -0.1328054 -0.052213 0.10056213 -0.21687797 -0.05311971 0.13082898 0.07804254 -0.15106584 -0.036690902 0.0218063 0.03887546 -0.061877377 -0.06548652 0.00052345474 -0.0054071746 -0.096436545 0.06018275 -0.021780513 0.11256041 -0.03243548 0.000962287 0.07632516 -0.039558772 -0.24937907 0.037514456 -0.16506772 -0.1670844 0.29127392 0.03375512 0.02822122 -0.03963083 0.009775887 0.059186246 -0.022612821 -0.016492266 -0.09913574 -0.11445275 0.1740007 -0.16008544 -0.018096384 0.05864782 -0.10167783 -0.20204963 0.10294792 -0.050282344 -0.031773813 0.005835949 0.08181115 0.19359781 -0.03146791 -0.058482617 -0.036714055 0.013337464 -0.12407797 -0.036422297 0.024481794 -0.107531704 -0.035757467 -0.109329045 0.15195796 -0.008378086 -0.034098536 -0.051314946 -0.15030499 -0.022095751 -0.22060719 0.07832982 0.028410025 -0.006177956 0.09244441
14 -0.07369855 -0.1848321 0.08795789 0.04817546 0.10023332 -0.117337495 0.11022508 0.09912411 0.012696043 0.033645477 -0.068156496 0.07289575 0.032936506 -0.15305081 -0.012605005 -0.22712539 0.014191489 -0.122760646 0.048592817 0.0380473 0.21273695 0.011534149 0.082455024 0.08196801 0.039149016 0.056420263 -0.015221373 0.06993036 0.048997305 0.13552465 -0.16077377 0.024742603 -0.071188994 0.11209925 -0.1043649 -0.20520602 0.2962077 0.024756817 0.025858145 -0.03969056 -0.13626903 0.009639506 0.05861757 0.24183276 -0.015239228 0.14090537 -0.021071635 -0.03059741 -0.08246096 0.06196263 -0.021060644 0.058513995 0.10862751 0.13810126 -0.21780322 -0.067054905 -0.09676107 -0.0047593866 -0.11763151 -0.0582955 0.115167 -0.21428886 -0.04781668 0.12697771 0.045892127 -0.110939205 -0.02945165 0.018710462 0.05133949 -0.08804554 -0.08977338 -0.014479244 -0.015552565 -0.09170201 0.10144601 0.0056477385 0.12898661 -0.049849793 0.005479395 0.00010299697 -0.053143747 -0.19539085 0.028882017 -0.14078763 -0.18005183 0.21338949 0.080355145 0.0010877239 -0.01672072 0.018433992 0.07746155 -0.04188325 0.0030909637 -0.08143265 -0.13740577 0.14372301 -0.14601947 -0.07000425 0.074539654 -0.04525103 -0.18376867 0.086345024 -0.086940706 -0.020876689 -0.007808867 0.0637697 0.17562607 -0.04433485 -0.059924304 -0.06467429 0.0106691085 -0.08342551 -0.023186209 0.030301804 -0.12918797 -0.021454344 -0.09112448 0.15879777 -0.02264403 -0.0577869 -0.04438112 -0.13006835 0.022193566 -0.21468021 0.019563729 -0.015250197 -0.00041485077 0.1051279
9 -0.07300204 -0.1815405 0.07839584 0.05174714 0.09735384 -0.11534611 0.11261518 0.09959592 0.02086489 0.030235454 -0.064268164 0.07533869 0.033242732 -0.15261014 -0.014526312 -0.22569014 0.011590928 -0.12100579 0.044557907 0.044655904 0.20621823 0.01052023 0.0884643 0.07703891 0.040270858 0.053878997 -0.021993442 0.058327373 0.04643987 0.13417892 -0.15816689 0.028625159 -0.07165808 0.105027415 -0.10454171 -0.20688377 0.30142492 0.02436498 0.02094892 -0.038367793 -0.14039604 0.008946627 0.059349995 0.24310584 -0.018009951 0.13772206 -0.021010231 -0.03373072 -0.083333485 0.05566416 -0.02107612 0.06351347 0.108453706 0.13502939 -0.21212216 -0.067571454 -0.09606922 -0.009330204 -0.11468021 -0.059694365 0.11542139 -0.21412565 -0.05160545 0.1335691 0.051352922 -0.11754585 -0.029814199 0.022335326 0.051019862 -0.08752909 -0.08573202 -0.0140112685 -0.010926067 -0.097297266 0.10246672 0.0010604013 0.12329132 -0.04504383 0.002268922 0.0064661484 -0.04934113 -0.19859137 0.025676185 -0.14897382 -0.18184504 0.2121214 0.080568284 0.0045468486 -0.021814937 0.02096419 0.080377206 -0.042514134 0.008534736 -0.075066805 -0.13724647 0.14064546 -0.14069115 -0.0713301 0.07305889 -0.045560732 -0.1867653 0.08634853 -0.09049798 -0.024393339 -0.0051167654 0.061565146 0.17162582 -0.04428466 -0.060260464 -0.06463382 0.01671321 -0.08026731 -0.019126022 0.024958203 -0.13119145 -0.022538533 -0.09193791 0.16222504 -0.023412596 -0.05370855 -0.04582689 -0.128667 0.021136366 -0.21122617 0.015377053 -0.010111058 0.0013367531 0.10800959
7 -0.10616516 -0.2782797 0.07040375 0.060208075 0.0927101 -0.18119687 0.13830082 0.19016805 0.16351685 0.027132733 -0.04449341 0.12131179 0.019408721 -0.1936339 0.07931121 -0.31704205 0.007137043 -0.21350527 0.041349787 -0.017784316 0.27344826 -0.04320722 0.08139025 0.11014298 0.15779807 0.03510438 0.0015466148 0.06912636 0.08961612 0.12740226 -0.19354735 0.020793257 -0.0623898 0.1003318 -0.08296232 -0.2448833 0.29287785 0.053250484 0.022647582 -0.028768633 -0.14007898 -0.023380231 0.082381204 0.2796883 -0.083644904 0.17154321 0.05008173 -0.03372691 0.0016367584 0.116840124 -0.11735575 0.08406279 0.112618625 0.18633358 -0.26726425 -0.10207375 -0.092984974 -0.013086789 -0.08321536 -0.074395485 0.16660446 -0.23017998 -0.036708187 0.15622956 -0.021947611 -0.052471578 -0.034098282 0.0408385 0.08081426 -0.1523735 -0.14041384 -0.050498754 -0.048184663 -0.103629306 0.1997365 0.04599409 0.15360914 -0.091294296 0.012941078 -0.14875835 -0.08174685 -0.08994758 0.020217083 -0.10431099 -0.23670794 0.042089984 0.17965114 -0.040438566 0.020726928 0.05070404 0.122664675 -0.0862965 0.068141736 -0.03455159 -0.19722268 0.10615412 -0.10463885 -0.19767214 0.11625723 0.06835938 -0.17554067 0.09146969 -0.17531492 -0.011791127 -0.03892703 0.034945264 0.14977331 -0.08484665 -0.04711535 -0.110599235 0.03043845 0.00018850132 0.0007471999 0.03299659 -0.21405421 0.0057534967 -0.056801993 0.1958043 -0.050938003 -0.104058295 -0.03284565 -0.08982383 0.1260659 -0.23595273 -0.12301893 -0.098748825 0.020979224 0.16640213
8 -0.080180876 -0.21003896 0.08878929 0.052189697 0.098531574 -0.13450146 0.11959432 0.1244502 0.04113932 0.036012 -0.063276924 0.08409965 0.027256606 -0.16381387 0.011346264 -0.2541199 0.010227347 -0.13359445 0.05049788 0.025452703 0.21665664 -0.00089150737 0.07559779 0.0778914 0.06089537 0.060360428 -0.0065320935 0.07631171 0.065064125 0.12847315 -0.17038164 0.01864374 -0.06656401 0.116483964 -0.09633569 -0.20448303 0.28978935 0.027063297 0.034168445 -0.027343074 -0.12365815 0.00021720689 0.05715695 0.24370638 -0.024884457 0.14288174 -0.009578548 -0.03486123 -0.067009956 0.06918885 -0.042556968 0.05043087 0.1147218 0.14849985 -0.2315407 -0.06888625 -0.09606511 -0.006366138 -0.11068285 -0.06059106 0.11989443 -0.214997 -0.048752874 0.12975292 0.035920277 -0.097222514 -0.026842823 0.018282695 0.057333574 -0.099814445 -0.100416794 -0.02763808 -0.018088294 -0.09476961 0.11598954 0.019900152 0.13619062 -0.06291923 0.008884845 -0.03076717 -0.05426244 -0.17548035 0.018141882 -0.13192387 -0.18731843 0.17725399 0.10663058 -0.008020368 -0.0045889416 0.021166703 0.08905448 -0.05190349 0.009563658 -0.073850654 -0.1478651 0.1241861 -0.13890137 -0.10220359 0.07400842 -0.02152013 -0.16846158 0.07593681 -0.10429724 -0.020059852 -0.008809517 0.04927857 0.16537103 -0.05974663 -0.060237147 -0.07751677 0.0110967 -0.06018384 -0.012197888 0.03009656 -0.1481429 -0.010451376 -0.08072547 0.16188456 -0.029982457 -0.0689478 -0.043276772 -0.121792875 0.04687424 -0.20660703 -0.004316226 -0.03828944 0.008743944 0.10897527
30 -0.057940412 -0.15691467 0.0865996 0.0579216 0.09892511 -0.09646285 0.113795444 0.06829149 -0.03354314 0.035551842 -0.08038572 0.056455266 0.04175941 -0.14567152 -0.050810345 -0.20573497 0.018788956 -0.09616534 0.043611404 0.06977339 0.19420856 0.021065181 0.09408278 0.07036231 0.0070583345 0.05264102 -0.028083073 0.05876754 0.027149025 0.1397261 -0.15016082 0.027372586 -0.074291624 0.10483844 -0.12311678 -0.19151597 0.30876252 0.016832856 0.028224733 -0.052210968 -0.14180975 0.029516865 0.053400997 0.23669457 0.007533048 0.13195983 -0.047965545 -0.035344798 -0.113484345 0.045341015 0.01885865 0.06336735 0.11522799 0.118094176 -0.2020403 -0.054388087 -0.10155102 -0.0077906707 -0.12657143 -0.050971337 0.10365053 -0.21957564 -0.05053633 0.1297196 0.0814378 -0.14520134 -0.035589855 0.016251074 0.04692654 -0.0714386 -0.06924876 -0.005050035 -0.0054776133 -0.09718219 0.069164634 -0.017313905 0.11973415 -0.03097296 0.002806525 0.063823864 -0.047469746 -0.24157551 0.028977837 -0.16425364 -0.16559272 0.28141862 0.040273502 0.024052192 -0.03870488 0.013911271 0.067393064 -0.03041698 -0.015273584 -0.092393264 -0.11635008 0.16613026 -0.16063182 -0.022930356 0.059724536 -0.091548696 -0.1877487 0.09692487 -0.059885956 -0.035834476 0.0027383054 0.07197906 0.1872767 -0.03485768 -0.062454022 -0.04454013 0.007682308 -0.116029955 -0.037633244 0.021691335 -0.104734816 -0.033856098 -0.10756166 0.1508589 -0.013486869 -0.033339947 -0.054055043 -0.1417524 -0.013065339 -0.21142411 0.06843182 0.021197217 0.0014954499 0.092160694
28 -0.069551796 -0.16999376 0.09145194 0.05502595 0.10422993 -0.10314393 0.11558803 0.079266824 -0.020479659 0.03247109 -0.07228459 0.065242134 0.04000058 -0.14815305 -0.04117219 -0.21502315 0.016861876 -0.111042395 0.049901515 0.06346223 0.2028589 0.018837433 0.09049256 0.07919188 0.014505175 0.05590372 -0.03536006 0.061945453 0.039801177 0.14173622 -0.15751095 0.032061573 -0.07231639 0.11243637 -0.12350105 -0.21005979 0.31718978 0.020795193 0.02639853 -0.047700014 -0.14723593 0.019738805 0.05609133 0.24396819 -0.003430712 0.13901499 -0.044336084 -0.033569977 -0.10985078 0.046804693 0.0047450964 0.06528886 0.11470547 0.123571545 -0.20948759 -0.061729383 -0.10140306 -0.0125675965 -0.12918507 -0.053165283 0.1094273 -0.22157894 -0.050929256 0.13793918 0.07085818 -0.13974023 -0.034079127 0.023642678 0.046177674 -0.07918523 -0.07832404 -0.0048874817 -0.01116291 -0.101635784 0.07823135 -0.009442894 0.12241374 -0.035774633 0.00035644247 0.046213288 -0.04792988 -0.2344006 0.03559038 -0.16120426 -0.17626028 0.2681329 0.05712097 0.018622838 -0.033236943 0.014784238 0.07277102 -0.031224258 -0.009481881 -0.09376683 -0.12463233 0.16129558 -0.15862411 -0.040376026 0.06772999 -0.0826843 -0.19913967 0.09930971 -0.07456265 -0.031162938 0.005554862 0.07615216 0.19141325 -0.0382362 -0.057072565 -0.054004394 0.013457073 -0.1055179 -0.03374404 0.024674235 -0.11884775 -0.030598812 -0.106373526 0.15924467 -0.01562881 -0.049476907 -0.050279565 -0.14633599 -0.0017088145 -0.22058305 0.04893345 0.005451521 -0.0026308578 0.100953676
6 -0.09802394 -0.25216937 0.07295588 0.0596443 0.09276932 -0.16366534 0.12870692 0.17017171 0.12786826 0.026411576 -0.043649007 0.10545804 0.018983388 -0.17679922 0.061957624 -0.2894497 0.0050420715 -0.1862273 0.04377039 -0.013093038 0.24257763 -0.03367798 0.073676415 0.09205704 0.1300481 0.034867223 0.0043744408 0.062573075 0.08118173 0.12130155 -0.17766564 0.013565675 -0.05639303 0.0981106 -0.075660594 -0.22110708 0.27622873 0.05069779 0.019883862 -0.029800432 -0.12723073 -0.016588164 0.07763811 0.25219414 -0.07190677 0.15442298 0.038290355 -0.03534209 -0.008927778 0.103363276 -0.094914705 0.07430035 0.10302796 0.16557871 -0.23979454 -0.095413245 -0.08780972 -0.011299562 -0.082771055 -0.07270667 0.15205404 -0.21041827 -0.037259873 0.14134453 -0.009049173 -0.06084911 -0.03565309 0.03321442 0.070065856 -0.13367926 -0.12111215 -0.045218434 -0.039696217 -0.09426623 0.17339027 0.03623067 0.14439394 -0.07782765 0.01038899 -0.11427473 -0.0758128 -0.098916 0.021158205 -0.1049135 -0.20719203 0.060962137 0.15940186 -0.033336964 0.014071544 0.042979587 0.1090087 -0.07316677 0.05204768 -0.037276614 -0.17508745 0.10082562 -0.103614435 -0.1698342 0.10567039 0.04766018 -0.1593478 0.0811741 -0.14672248 -0.012282191 -0.034017902 0.04022694 0.14414 -0.07068036 -0.045364767 -0.09938219 0.026976084 -0.011137871 -0.0026030615 0.034923747 -0.18568447 0.0049424497 -0.054491192 0.1771691 -0.041911237 -0.09430954 -0.029872002 -0.09193086 0.104720704 -0.21962228 -0.09703364 -0.07861926 0.019144062 0.14061412
31 -0.06501741 -0.16940983 0.091394395 0.05471917 0.10015425 -0.11367643 0.11171969 0.0830642 -0.013792415 0.033891864 -0.068331555 0.068063445 0.04171777 -0.15072137 -0.03010439 -0.21995361 0.010448461 -0.10468297 0.049267482 0.049297746 0.19809058 0.013247597 0.080571994 0.07811192 0.022734327 0.054419067 -0.019028133 0.06685196 0.041379873 0.13084859 -0.15459792 0.027231587 -0.075929224 0.11026622 -0.108744115 -0.19198336 0.2981733 0.018889101 0.031224608 -0.04818978 -0.13298462 0.020419894 0.054317374 0.23168974 -0.0045155548 0.13397998 -0.034988116 -0.03516994 -0.096740045 0.05369494 -0.0039371676 0.06059223 0.10984922 0.1265918 -0.20916677 -0.0630818 -0.09261662 -0.008450766 -0.12409367 -0.057057977 0.110718064 -0.21070108 -0.05557904 0.12345795 0.05787643 -0.12708297 -0.03804746 0.016391674 0.046312124 -0.07699667 -0.079583414 -0.013868294 -0.0088368375 -0.09483914 0.085276365 -0.0047131227 0.12817854 -0.044226535 0.008613648 0.032395054 -0.047365285 -0.21855664 0.027056098 -0.1549497 -0.16998313 0.24312858 0.061514128 0.0085962415 -0.026402947 0.012566289 0.066375464 -0.031067718 -0.0036657671 -0.088573456 -0.13194327 0.15151675 -0.15356296 -0.051728632 0.06429655 -0.062873684 -0.1886951 0.09028936 -0.07117235 -0.031193547 -0.003356913 0.0680937 0.1813625 -0.04052839 -0.056726042 -0.052737437 0.009028965 -0.09979299 -0.029608086 0.025574548 -0.11921407 -0.023406407 -0.09892817 0.16163075 -0.021387188 -0.04712185 -0.05017853 -0.13707796 0.0039609224 -0.21689233 0.040302265 0.004690372 -0.0041993037 0.09849153
29 -0.07216668 -0.17875513 0.08514939 0.053074438 0.10463216 -0.11663592 0.11486223 0.09146884 0.0009656407 0.0338071 -0.06819275 0.07307317 0.034350775 -0.15330523 -0.024676258 -0.22723183 0.011955565 -0.12095078 0.05064113 0.04975967 0.21166724 0.011076997 0.083110645 0.07971178 0.028813588 0.05335278 -0.023607492 0.06375491 0.048613593 0.139354 -0.16006826 0.024250513 -0.07028247 0.111058526 -0.11733937 -0.20460817 0.31212714 0.02309989 0.028498568 -0.047075514 -0.13649002 0.018397454 0.05429658 0.23992325 -0.005591657 0.14375289 -0.030726738 -0.03357465 -0.09658378 0.055487353 -0.0076044514 0.059806786 0.111814395 0.1344457 -0.22298229 -0.060248103 -0.09309039 -0.0060422174 -0.1209391 -0.055050697 0.114953905 -0.2221546 -0.05461533 0.13363321 0.055186227 -0.12699507 -0.036303308 0.020279981 0.052522805 -0.079931155 -0.086196266 -0.013856139 -0.013464678 -0.094971426 0.0918935 0.001991855 0.1320647 -0.045297742 0.0065297848 0.021803936 -0.053163614 -0.21169129 0.032324027 -0.15488854 -0.17689838 0.2384867 0.07414086 0.0060053137 -0.02432923 0.0126345735 0.0754736 -0.039905284 -0.0036616921 -0.08417986 -0.13018267 0.15482335 -0.15393348 -0.0575633 0.06882198 -0.06411524 -0.19111115 0.093870535 -0.07969568 -0.026321288 -0.001511961 0.066849336 0.17678708 -0.04850668 -0.057301458 -0.056013405 0.014547164 -0.09215756 -0.029204829 0.025355343 -0.12941591 -0.026720751 -0.097060464 0.15799366 -0.015276747 -0.054631233 -0.048912387 -0.13656195 0.008119844 -0.22025701 0.037098605 -0.0030341125 -0.0024421923 0.10002753
26 -0.05912899 -0.15129063 0.08441866 0.051087692 0.10015968 -0.09929739 0.10927335 0.06935544 -0.02781644 0.027909683 -0.07156077 0.052025326 0.04356801 -0.1425344 -0.04513746 -0.19745907 0.01996187 -0.10327926 0.046421375 0.06483373 0.19956191 0.020839844 0.09197644 0.07955655 0.009074326 0.049029544 -0.03723398 0.05503171 0.03063293 0.14069515 -0.14857905 0.028992767 -0.07058871 0.09976702 -0.12611426 -0.20116478 0.3073536 0.017238881 0.022261074 -0.052084193 -0.14323086 0.02016776 0.04916729 0.23088457 0.0012357123 0.13927196 -0.046078436 -0.03097937 -0.10728467 0.046797734 0.01589438 0.06575392 0.10484433 0.117229156 -0.20213445 -0.058763713 -0.09169516 -0.009517103 -0.12660271 -0.048847742 0.10509848 -0.21041584 -0.05105978 0.13367276 0.06920406 -0.13779062 -0.032835517 0.019146832 0.04415188 -0.06925508 -0.07070593 -0.0048823715 -0.00820794 -0.09558546 0.072427586 -0.017884117 0.112567455 -0.033548374 0.00201628 0.049422264 -0.04759503 -0.22736357 0.035050444 -0.15810613 -0.16428263 0.26504296 0.045802485 0.01782671 -0.03622149 0.010862143 0.06635114 -0.027461836 -0.005098856 -0.08691936 -0.11737842 0.15839411 -0.1547062 -0.034002475 0.066626415 -0.08532337 -0.19171579 0.09536206 -0.064212784 -0.027153676 0.00710439 0.07629932 0.1870205 -0.03554749 -0.051328607 -0.04247672 0.009569345 -0.10988356 -0.030078985 0.027173044 -0.11233371 -0.029728323 -0.09961485 0.15234686 -0.008705525 -0.04776075 -0.049511407 -0.14407788 -0.010821793 -0.21988578 0.0557964 0.017850671 -0.0069223214 0.09107127
20 -0.07611845 -0.19501062 0.089466125 0.051296037 0.0994088 -0.12968567 0.11961779 0.111009456 0.016643722 0.032443676 -0.06899095 0.07348806 0.03713231 -0.16155457 -0.0077173254 -0.24352804 0.007289456 -0.12033393 0.047515642 0.030450566 0.21174689 0.0045957966 0.081457816 0.07848154 0.045446977 0.060124975 -0.0063716364 0.06959416 0.059641752 0.12584111 -0.16679856 0.018936852 -0.06908646 0.11271481 -0.096685216 -0.19809346 0.2942974 0.021753376 0.029322302 -0.037341196 -0.12836033 0.00400535 0.054560304 0.23867455 -0.015221754 0.13757612 -0.015308725 -0.0347525 -0.07546958 0.05770169 -0.028731342 0.05214017 0.11320061 0.13524939 -0.2203099 -0.0643353 -0.092751086 -0.0101235695 -0.116808705 -0.053865448 0.118272536 -0.20766811 -0.04916947 0.12805991 0.0453813 -0.10609915 -0.029662017 0.018960848 0.051735267 -0.085927874 -0.09189276 -0.019315835 -0.015261663 -0.09440049 0.10278323 0.011458856 0.13266098 -0.054300282 0.008386326 -0.004058804 -0.05283753 -0.189856 0.021117482 -0.143316 -0.17315352 0.20083179 0.08480545 0.0005081786 -0.016177556 0.023079956 0.08353017 -0.043351043 0.0023786242 -0.07973122 -0.13647175 0.13164587 -0.14015497 -0.07905243 0.06735715 -0.03294396 -0.17414983 0.0779613 -0.09113097 -0.018551568 -0.007949399 0.058806263 0.1660186 -0.04942354 -0.055759348 -0.06570743 0.011413613 -0.0711495 -0.018474463 0.03154421 -0.13554777 -0.019898249 -0.08126655 0.15936328 -0.023282658 -0.058296204 -0.044169817 -0.120499745 0.029284464 -0.20737429 0.013571678 -0.018031178 0.0030819292 0.103708856
25 -0.067336746 -0.16232294 0.08047727 0.050581746 0.094112776 -0.10246015 0.10568559 0.07598527 -0.007784729 0.028477209 -0.068619505 0.05798955 0.038120516 -0.13946426 -0.035783418 -0.21003632 0.019137591 -0.114245676 0.051215056 0.062727876 0.2074186 0.015234741 0.09231894 0.082591586 0.02154512 0.049880188 -0.029985724 0.05918527 0.036406167 0.14188425 -0.15544924 0.02862295 -0.071121864 0.103151426 -0.12398041 -0.20085287 0.3018947 0.023113659 0.022304757 -0.05000085 -0.14474899 0.02093712 0.05263795 0.23360263 -0.00059615937 0.1410131 -0.036954176 -0.02913491 -0.09629085 0.04742685 -0.0021769688 0.06543179 0.11040497 0.12782587 -0.21145621 -0.06106744 -0.090962365 -0.013968923 -0.12248273 -0.047650907 0.10553793 -0.20908065 -0.04899717 0.12959515 0.059418675 -0.13288753 -0.034292143 0.02473366 0.040610917 -0.0751348 -0.076531604 -0.010916024 -0.005612245 -0.09249919 0.077155046 -0.012864933 0.114960775 -0.03484494 0.0056607975 0.034831684 -0.04643308 -0.22302797 0.03155106 -0.15810351 -0.17003231 0.24635054 0.058192372 0.009007257 -0.033783507 0.009661659 0.067586266 -0.03248145 -0.0005392351 -0.091340296 -0.12607299 0.15676723 -0.15063252 -0.0461031 0.06700172 -0.070684224 -0.1930496 0.0946747 -0.07509914 -0.026830366 0.004886322 0.069070585 0.18164867 -0.03515611 -0.053138472 -0.05293433 0.011625324 -0.09928367 -0.025333382 0.02164391 -0.12197967 -0.028336814 -0.09327077 0.15209907 -0.016520023 -0.04876528 -0.045965966 -0.1325711 -0.0013055793 -0.21412465 0.041123092 0.010588936 -0.0055558663 0.09638028
5 -0.103521876 -0.2720578 0.0730075 0.06234102 0.1002888 -0.17798254 0.14026184 0.17773832 0.14365415 0.026481371 -0.04633653 0.11865292 0.01875211 -0.18437828 0.06443414 -0.30911463 0.0054298923 -0.19966199 0.042199302 -0.0074112816 0.25882626 -0.032730054 0.07663774 0.10473236 0.14086592 0.036734924 0.001921598 0.064620465 0.08137916 0.12417951 -0.1881301 0.01569622 -0.062387645 0.10293568 -0.07928831 -0.23732665 0.28986993 0.050905928 0.02150833 -0.0291548 -0.13074885 -0.020480955 0.07573086 0.26761892 -0.07598099 0.15979795 0.040863775 -0.032852724 -0.0104025155 0.10687713 -0.10068748 0.07979708 0.11343737 0.16844714 -0.24855287 -0.09927165 -0.09044617 -0.008029516 -0.08505996 -0.079926476 0.15458107 -0.22882813 -0.0342948 0.15087469 -0.014420191 -0.05937298 -0.03046792 0.03444773 0.07488875 -0.14171791 -0.1321401 -0.047051128 -0.042574935 -0.10472858 0.18290104 0.03671254 0.14757721 -0.090723306 0.009480548 -0.12786716 -0.07959927 -0.105815165 0.021562211 -0.10921178 -0.22651508 0.0632219 0.16859204 -0.029252285 0.020421287 0.043886807 0.113881364 -0.080107704 0.056779474 -0.035610087 -0.18935272 0.108553395 -0.112555504 -0.17859605 0.11526844 0.056293476 -0.17523432 0.088729 -0.1574965 -0.017803125 -0.038870033 0.040144205 0.15406746 -0.078917064 -0.054568674 -0.100694895 0.021321235 -0.012930825 0.00016585864 0.03228698 -0.1986766 0.005708514 -0.055202574 0.19114245 -0.041077092 -0.09803065 -0.032829892 -0.09224695 0.107899025 -0.23622572 -0.10307254 -0.08350584 0.0135288015 0.15726483
11 -0.11073181 -0.27885935 0.07434192 0.062526606 0.09723411 -0.18361352 0.13313499 0.19171417 0.1596832 0.025092714 -0.04528654 0.11933739 0.01800681 -0.18661392 0.077589534 -0.31731746 0.005478374 -0.20489974 0.044119425 -0.018775612 0.26637974 -0.0411311 0.08179318 0.10334897 0.14898553 0.035514485 0.0042507104 0.069052204 0.08561958 0.1215979 -0.1882991 0.01693179 -0.05752288 0.09826068 -0.07607426 -0.23508738 0.290898 0.055909354 0.023809567 -0.021893978 -0.13002965 -0.021289928 0.08313492 0.27201468 -0.08319013 0.16584301 0.04859708 -0.029561887 -0.0023093324 0.11453803 -0.11130161 0.08070376 0.11286776 0.17958118 -0.2596892 -0.103948094 -0.091480434 -0.006762593 -0.089180954 -0.07576909 0.1615331 -0.23075148 -0.032817 0.15510613 -0.02186632 -0.052200045 -0.037638698 0.035449717 0.081790134 -0.14881891 -0.13658598 -0.05168021 -0.046361472 -0.10502551 0.19633497 0.045247994 0.151265 -0.09423611 0.010699172 -0.14242321 -0.07816304 -0.08962588 0.018625503 -0.10609949 -0.23323405 0.043998808 0.18003313 -0.037782796 0.024387226 0.049411993 0.11627576 -0.088065244 0.06321393 -0.031098973 -0.18863069 0.09678289 -0.10199159 -0.19008017 0.1134323 0.06997795 -0.16512732 0.09076593 -0.16657004 -0.010261661 -0.03841515 0.035646264 0.15048917 -0.085652485 -0.048897296 -0.10994112 0.026221052 -0.00026306038 -0.001044779 0.033176024 -0.2066532 0.0021882323 -0.057089776 0.1925749 -0.04833798 -0.10541502 -0.029075261 -0.090787515 0.12366414 -0.2315052 -0.11672892 -0.09857543 0.016050406 0.15883633
15 -0.06580097 -0.1592696 0.0876722 0.048589963 0.09956539 -0.094754785 0.11045526 0.07010712 -0.020555157 0.03002636 -0.070060395 0.058290675 0.038201716 -0.14087574 -0.038596276 -0.2058549 0.013627782 -0.10389875 0.044223852 0.05667971 0.19903369 0.021237973 0.087903604 0.07818569 0.010471629 0.052596185 -0.03111842 0.05866183 0.034038126 0.13329469 -0.15290724 0.02937178 -0.07115802 0.105324544 -0.11791926 -0.19678202 0.30191842 0.017096912 0.02945364 -0.045951206 -0.1424804 0.023151526 0.052383076 0.23464893 0.0058242413 0.13879189 -0.044201322 -0.03303638 -0.10638553 0.0455442 0.009244973 0.062079348 0.11071642 0.12549552 -0.20956104 -0.06212656 -0.10042426 -0.012948691 -0.12333952 -0.048440978 0.10767573 -0.2106572 -0.05150025 0.12664196 0.07133769 -0.13312757 -0.03187523 0.018745206 0.04949842 -0.07047785 -0.07126775 -0.009977433 -0.005189816 -0.09895479 0.073529795 -0.01306188 0.12231994 -0.037287027 -0.0004032342 0.043371685 -0.045813758 -0.22595568 0.030933298 -0.1625456 -0.17354715 0.25842854 0.050818577 0.012931878 -0.03379608 0.015405828 0.069933124 -0.028669337 -0.0066190837 -0.09205901 -0.12736207 0.162158 -0.15426165 -0.034310896 0.06582074 -0.07511833 -0.18952112 0.09424972 -0.069706194 -0.029409 0.004735411 0.067154266 0.18567662 -0.03722441 -0.058592867 -0.05351971 0.012469968 -0.10636763 -0.03341772 0.0197664 -0.11679359 -0.026112463 -0.09977934 0.15845934 -0.018544735 -0.039095517 -0.04734166 -0.14252393 -0.0009731075 -0.21169357 0.049612198 0.012497342 5.2568023e-05 0.097651474
18 -0.0748557 -0.19408429 0.080475144 0.04996095 0.09945296 -0.12842788 0.110855415 0.11650896 0.037685204 0.03549783 -0.061853893 0.08071495 0.03335915 -0.15843113 0.004846675 -0.24400352 0.008056049 -0.12551732 0.042259496 0.029747907 0.2136278 0.000588692 0.080785595 0.07985329 0.059019126 0.05542152 -0.008153632 0.067106344 0.060768306 0.12585568 -0.1618863 0.022327801 -0.0666662 0.110802405 -0.092584684 -0.19940674 0.28185272 0.02540907 0.03032475 -0.028225025 -0.123512976 0.008494787 0.055693716 0.23393492 -0.024626957 0.13937962 -0.013972443 -0.032428782 -0.065372124 0.06351526 -0.032824337 0.051289074 0.112308905 0.14440349 -0.22096157 -0.06422944 -0.08976281 -0.010033091 -0.109619804 -0.057990033 0.11946728 -0.21114746 -0.04748401 0.12606141 0.040907636 -0.09690661 -0.02833747 0.017154064 0.0607657 -0.08974039 -0.09510058 -0.024416588 -0.014853051 -0.09655308 0.1146944 0.01599615 0.13518947 -0.055705722 0.009736724 -0.021931248 -0.057889834 -0.1698749 0.023218323 -0.13588278 -0.18249053 0.1791465 0.09781762 -0.0040999493 -0.011980576 0.027443746 0.08411027 -0.050013933 0.011281523 -0.0756529 -0.14592879 0.12967806 -0.13728288 -0.08731922 0.07528201 -0.025281498 -0.17045514 0.0842164 -0.0948578 -0.019575808 -0.011619277 0.05203801 0.1590691 -0.05710833 -0.05642155 -0.07424133 0.011925075 -0.06677625 -0.02051932 0.027243981 -0.14127822 -0.017671732 -0.08088647 0.15715228 -0.02273861 -0.064418584 -0.042211317 -0.12273635 0.03945184 -0.20785165 0.000777037 -0.032379765 0.004368437 0.10764809
10 -0.071901046 -0.1846573 0.08462193 0.052042276 0.10129521 -0.11571445 0.11570195 0.10160719 0.017824722 0.030231731 -0.06515001 0.07562831 0.031648517 -0.1501551 -0.015242742 -0.22715746 0.0133936275 -0.1164367 0.044808168 0.040108167 0.20690033 0.0070994305 0.08148002 0.081175685 0.038315374 0.054064453 -0.013807491 0.064155884 0.04979812 0.12522838 -0.16192494 0.01948904 -0.06702822 0.11065288 -0.1055604 -0.19737191 0.2919377 0.018965721 0.026604153 -0.041254755 -0.13092719 0.008672494 0.05987296 0.23829989 -0.010530639 0.13729249 -0.018177286 -0.03326725 -0.07703958 0.05542352 -0.017729469 0.05683639 0.11248222 0.1330076 -0.21512237 -0.06036557 -0.09145552 -0.009185223 -0.11796168 -0.053966943 0.11386123 -0.21126682 -0.052989904 0.12725766 0.049127948 -0.108481206 -0.032816198 0.016756993 0.046986774 -0.088249415 -0.082849704 -0.021242715 -0.008247751 -0.093918994 0.09993684 0.0061765006 0.12683025 -0.05184489 0.0028036777 0.0033865026 -0.054517925 -0.19548309 0.025199968 -0.13856716 -0.17688634 0.20803559 0.07631071 0.00096972287 -0.016262662 0.017622348 0.07926777 -0.04014505 0.0041604964 -0.07486109 -0.13278997 0.13977979 -0.14122213 -0.07213214 0.06906906 -0.041669223 -0.1752512 0.08325104 -0.081983484 -0.023132913 -0.007943424 0.058331646 0.17068888 -0.043146163 -0.06079601 -0.058883548 0.015779736 -0.08240904 -0.02001953 0.02609198 -0.12462386 -0.020339359 -0.084920995 0.15718786 -0.022595199 -0.057308838 -0.044099882 -0.12447626 0.020444332 -0.20297387 0.023475261 -0.014873927 0.0009908101 0.10217213
22 -0.079533964 -0.21282852 0.084660076 0.05331122 0.100768425 -0.14021453 0.1191564 0.12402837 0.043997653 0.03132858 -0.06419776 0.086853705 0.03263995 -0.16673078 0.010440421 -0.2565613 0.0076925512 -0.13917919 0.05178656 0.028842501 0.22291115 -0.0026685796 0.083107695 0.08413423 0.061179485 0.05679023 -0.010290526 0.06612214 0.06454354 0.13141139 -0.16787891 0.017558595 -0.07090717 0.110689245 -0.097358756 -0.21025611 0.28918615 0.027844844 0.026690144 -0.03577949 -0.12383485 -0.003350587 0.057628207 0.24740438 -0.026851185 0.14623536 -0.009397759 -0.030910052 -0.059707005 0.06820888 -0.044429246 0.055421658 0.10660518 0.1441967 -0.22268039 -0.07122083 -0.08933744 -0.0022279387 -0.10571091 -0.06323746 0.12401661 -0.21154134 -0.045675766 0.13497604 0.03085531 -0.09425271 -0.034234613 0.02340755 0.061641704 -0.09543443 -0.101541914 -0.023389414 -0.019494306 -0.097020395 0.12268859 0.018070666 0.1315991 -0.059420966 0.011717615 -0.033101033 -0.060643114 -0.17067672 0.024970733 -0.13605182 -0.18673812 0.1671222 0.10743837 -0.011158854 -0.0042454754 0.024553984 0.08821694 -0.05323963 0.0148124695 -0.07317993 -0.14852946 0.12721616 -0.13573983 -0.0991322 0.08202544 -0.019704785 -0.17463803 0.083627366 -0.101077095 -0.017728621 -0.0115136495 0.056050777 0.16391589 -0.05406371 -0.057515226 -0.07314762 0.017183792 -0.06047836 -0.011517907 0.03261625 -0.14789948 -0.014871722 -0.08100615 0.16373694 -0.03094451 -0.069150224 -0.039566137 -0.11860061 0.046590034 -0.21186422 -0.010417693 -0.033844225 0.007777567 0.113938294
17 -0.115248896 -0.2933502 0.08436515 0.068089515 0.10279319 -0.19462042 0.14911371 0.19738816 0.1566841 0.03443459 -0.05087922 0.12958981 0.024678314 -0.19980954 0.06711482 -0.33132866 0.0078886375 -0.22131296 0.04694273 -0.008279025 0.2842757 -0.041646365 0.09091221 0.108696274 0.15414438 0.04621037 0.0014602852 0.076007105 0.09498974 0.14168945 -0.20504233 0.020111334 -0.06364928 0.11123421 -0.091580875 -0.26070902 0.31951022 0.05755472 0.025354438 -0.02950817 -0.14780058 -0.02580836 0.08315946 0.29666153 -0.0823831 0.17500202 0.0442888 -0.033610556 -0.012226329 0.119622804 -0.11318122 0.08173068 0.11976478 0.18688177 -0.27456912 -0.10747458 -0.10434733 -0.0046848203 -0.09341279 -0.085020095 0.17212844 -0.24794132 -0.039641365 0.1606201 -0.013375418 -0.062369302 -0.037777428 0.037724048 0.08217467 -0.14985791 -0.14536473 -0.052287236 -0.043403488 -0.1129887 0.20163374 0.046803467 0.16114326 -0.09602851 0.01405291 -0.14073254 -0.08377959 -0.11443602 0.027887076 -0.11770039 -0.2483492 0.07117208 0.1862452 -0.039631367 0.023313707 0.04735131 0.1190527 -0.0870416 0.06077784 -0.038962267 -0.20434178 0.11654675 -0.116024256 -0.1900084 0.124188095 0.059737287 -0.18496358 0.09645722 -0.17344214 -0.012104398 -0.03675287 0.043790773 0.16653433 -0.08773831 -0.057742685 -0.10838204 0.027574128 -0.013172863 0.0027160342 0.03981386 -0.21462211 0.001807593 -0.06451084 0.21023086 -0.04910741 -0.11225878 -0.032094285 -0.100530446 0.119277164 -0.24860202 -0.11458722 -0.09513823 0.016260846 0.1694004
19 -0.05856948 -0.1593779 0.09369008 0.05166551 0.10236824 -0.09868677 0.11055559 0.07053938 -0.028317884 0.033880446 -0.07937971 0.061556567 0.040156145 -0.14287865 -0.04833977 -0.20410635 0.01430154 -0.1009576 0.050142467 0.06726185 0.19429956 0.018886995 0.08876841 0.0768886 0.006822568 0.058444515 -0.030987063 0.061024465 0.030723603 0.13467976 -0.14941163 0.02927539 -0.0728095 0.10338291 -0.12119777 -0.19494003 0.30252063 0.016912632 0.029111039 -0.048940316 -0.14027858 0.024908487 0.05256957 0.23122048 0.009398695 0.13336512 -0.04235286 -0.034498487 -0.110954486 0.046204977 0.014796674 0.059111126 0.10716132 0.119996406 -0.19960497 -0.052839875 -0.09914236 -0.0053127627 -0.1239376 -0.053067494 0.10169814 -0.21698093 -0.050884113 0.12988459 0.07277065 -0.14252242 -0.031186696 0.017095232 0.04011548 -0.07250124 -0.0702381 -0.006056267 -0.0042770924 -0.094348304 0.06747307 -0.017143143 0.12244197 -0.03340995 -0.0005898576 0.05276608 -0.045525525 -0.23578535 0.03336769 -0.16323438 -0.16817366 0.27356863 0.049363468 0.02180133 -0.03710631 0.009347002 0.06344426 -0.024495015 -0.009994198 -0.090322405 -0.12188544 0.16580997 -0.15890715 -0.030404389 0.061579097 -0.09021514 -0.1897862 0.09758317 -0.062918104 -0.034332722 0.0026350175 0.07458158 0.1861912 -0.03575836 -0.060463097 -0.04522512 0.008098201 -0.11128548 -0.032877117 0.022933094 -0.10583247 -0.028920824 -0.100323536 0.15757184 -0.015843535 -0.038674008 -0.052666366 -0.14499535 -0.014008571 -0.21878693 0.06035602 0.017046576 -0.0076126894 0.09005559
21 -0.06759824 -0.16281411 0.089233786 0.04942059 0.09837931 -0.107319176 0.11231562 0.08021626 -0.016609354 0.037421275 -0.07342021 0.062862225 0.04004147 -0.15200816 -0.035612896 -0.21468447 0.014666716 -0.10286449 0.04862777 0.05503873 0.20021687 0.017253364 0.0844324 0.07736019 0.017535107 0.054020606 -0.021991884 0.06304128 0.0387334 0.1335383 -0.15134273 0.023887962 -0.07322951 0.10992044 -0.117050484 -0.1974997 0.30186257 0.020033073 0.030509673 -0.044138435 -0.13860889 0.024531052 0.05069765 0.23236695 -0.0017710095 0.13540491 -0.036717054 -0.031647883 -0.09864239 0.0483599 0.009177892 0.059388563 0.11495991 0.1232398 -0.20957726 -0.056687534 -0.09563529 -0.01104296 -0.12682353 -0.049923994 0.104422435 -0.21303493 -0.051692527 0.1295941 0.07111662 -0.13054983 -0.033066045 0.013682901 0.045282573 -0.07766495 -0.07233252 -0.014357733 -0.006252344 -0.09352323 0.081020884 -0.007102211 0.12064632 -0.044065204 0.0056348713 0.042289983 -0.048329156 -0.22151773 0.027258484 -0.15830302 -0.17126289 0.2507398 0.05447539 0.01252402 -0.02585496 0.011939162 0.07268671 -0.030771965 -0.012949915 -0.08496486 -0.124697074 0.1522337 -0.15564422 -0.04202466 0.063501075 -0.07250161 -0.18600208 0.08819644 -0.06740804 -0.025529858 0.003573214 0.06907441 0.17940545 -0.043847132 -0.06046732 -0.05293828 0.014218528 -0.09777437 -0.031114226 0.02724632 -0.11726287 -0.023881063 -0.10187224 0.15384665 -0.014898506 -0.041488405 -0.04926625 -0.13763225 0.00037889724 -0.21501546 0.05317843 0.007996511 0.002959832 0.09159559
13 -0.07845387 -0.20703745 0.08146393 0.045363043 0.09397586 -0.13741197 0.11619845 0.12537262 0.05850243 0.03262501 -0.05648402 0.0815219 0.027410928 -0.16581695 0.023496933 -0.25408947 0.003191185 -0.14117195 0.04301206 0.008757347 0.22008355 -0.006390626 0.06837007 0.082411334 0.068327785 0.050513085 0.0012010878 0.07354583 0.07156987 0.12067825 -0.1698302 0.018828463 -0.0662436 0.10740625 -0.085957564 -0.20421727 0.28055495 0.036523648 0.031646103 -0.027011376 -0.11525872 -0.005244871 0.06100741 0.24079563 -0.035390075 0.1448514 0.0030078443 -0.034245003 -0.055127002 0.07552901 -0.055738013 0.05733007 0.10974184 0.1519216 -0.23211077 -0.077217326 -0.09347164 -0.010227926 -0.0989764 -0.060728204 0.12784187 -0.20476685 -0.04865939 0.12638369 0.026774485 -0.08681226 -0.031694897 0.018719537 0.06647121 -0.10693526 -0.104591765 -0.03085766 -0.02235153 -0.09673617 0.12907605 0.018764151 0.13564733 -0.06611601 0.0061070975 -0.052885953 -0.058883764 -0.15126422 0.015447719 -0.12626801 -0.18790665 0.14133891 0.11640062 -0.015070243 -0.0048957793 0.033313643 0.095245995 -0.056401785 0.016007861 -0.06926782 -0.14894119 0.11265156 -0.12645416 -0.11483696 0.07637005 -0.0005550322 -0.15883133 0.07600632 -0.110902436 -0.016274704 -0.016494514 0.041678753 0.15622377 -0.061118364 -0.05393616 -0.08636525 0.021187989 -0.048287984 -0.012032787 0.03298443 -0.1548263 -0.011972791 -0.074878715 0.16507426 -0.029370397 -0.07337916 -0.03734864 -0.10762551 0.06276261 -0.19908863 -0.029494524 -0.041425593 0.01256293 0.1185111
23 -0.054922044 -0.14238988 0.08715896 0.05426946 0.100228935 -0.0887039 0.10815665 0.06605004 -0.044350818 0.03257137 -0.080447316 0.052161768 0.04393209 -0.14093763 -0.059525818 -0.19039373 0.017116446 -0.07990046 0.047468454 0.07160266 0.17836641 0.024673954 0.08306187 0.07198831 -0.004523984 0.054254588 -0.033609163 0.054597583 0.020475967 0.13320586 -0.141677 0.027594976 -0.07465072 0.10323183 -0.12251969 -0.18598378 0.29935393 0.007103452 0.023919621 -0.050011788 -0.13724098 0.02978714 0.049999878 0.22473578 0.017791519 0.122908905 -0.052575737 -0.028186958 -0.11841677 0.03722854 0.029629825 0.0552244 0.11150572 0.10816632 -0.19150496 -0.053176623 -0.09742855 -0.007350869 -0.12675561 -0.051822696 0.09469244 -0.20849068 -0.049723286 0.12173243 0.08459791 -0.14288858 -0.030302199 0.018110907 0.039734263 -0.057293963 -0.061611824 -0.0019628787 0.0030204775 -0.091433555 0.05192402 -0.01873752 0.11558075 -0.030192269 0.005400258 0.07473728 -0.03560338 -0.24441868 0.03426633 -0.16008061 -0.15663406 0.2878255 0.029619155 0.02679648 -0.041138597 0.006856758 0.058603987 -0.020234654 -0.02503631 -0.093944445 -0.11368718 0.16013373 -0.15643647 -0.017391168 0.052323777 -0.0932894 -0.18719175 0.09046683 -0.04388033 -0.03656418 0.0052579623 0.07000475 0.18075316 -0.03364599 -0.057461873 -0.03504801 0.003737989 -0.11987175 -0.037436977 0.020029947 -0.097401865 -0.033786207 -0.107065886 0.14775026 -0.010280882 -0.031629775 -0.050047345 -0.13843226 -0.024776919 -0.20893124 0.080249734 0.023713151 -0.004061455 0.083164215
16 -0.067874976 -0.16912904 0.08713272 0.05154637 0.098692715 -0.108859956 0.11354939 0.08809348 -0.0024556136 0.032481927 -0.07204466 0.06776536 0.034985147 -0.14269717 -0.024851868 -0.21729106 0.011309789 -0.11266721 0.042588234 0.045035664 0.1963642 0.014742343 0.08491236 0.07612972 0.027856113 0.05350948 -0.021487355 0.060970567 0.03838508 0.12520964 -0.15450582 0.026368286 -0.07026299 0.09988189 -0.10679817 -0.19156271 0.29416955 0.014618082 0.023149222 -0.04764692 -0.13561776 0.019406563 0.056504007 0.22994621 -0.0023499278 0.12954602 -0.027993517 -0.026798826 -0.09328214 0.05566211 3.7304897e-05 0.05856506 0.10777909 0.12807879 -0.20291466 -0.058999073 -0.092415564 -0.0061088935 -0.117091656 -0.056836832 0.108585596 -0.21169509 -0.050312918 0.120470524 0.058281094 -0.11919652 -0.031305898 0.023173867 0.042891897 -0.07918894 -0.07429499 -0.015928596 -0.007430508 -0.093868785 0.085789084 -0.0051296707 0.12310526 -0.045726582 0.0020029286 0.02608896 -0.042974226 -0.20820616 0.03040339 -0.14577034 -0.16722664 0.23292544 0.06348692 0.013240682 -0.021684537 0.015809048 0.06528547 -0.032779522 -0.007921753 -0.07975728 -0.12519489 0.14829266 -0.14042848 -0.05418038 0.063294634 -0.06402399 -0.17624784 0.089935936 -0.06662221 -0.028680986 -0.004767178 0.062085357 0.17029564 -0.041461904 -0.054078303 -0.049534995 0.009971624 -0.08752871 -0.030157033 0.027720137 -0.11583867 -0.02251046 -0.09272254 0.15507792 -0.016819859 -0.051068325 -0.046117954 -0.12678806 0.0043440526 -0.20951395 0.04000573 0.0010462695 -0.00054540654 0.10050524
27 -0.058566604 -0.16102888 0.08767961 0.051045593 0.10326285 -0.10034783 0.11359978 0.07831178 -0.032314546 0.03453042 -0.077914566 0.055828206 0.041662306 -0.14076222 -0.045846954 -0.20696342 0.019331817 -0.093548745 0.046223875 0.055536587 0.18917134 0.022363381 0.08483801 0.076037414 0.0073724976 0.04959654 -0.029438019 0.061394677 0.027852468 0.13119224 -0.14496489 0.022357607 -0.07494471 0.102433346 -0.11317173 -0.19257069 0.2991149 0.013292626 0.024617346 -0.052025035 -0.1396043 0.025488889 0.05081646 0.22914994 0.007239116 0.13207835 -0.038855277 -0.031526648 -0.10680035 0.047553916 0.018905709 0.061980657 0.10924323 0.1221313 -0.20154507 -0.05912472 -0.09555716 -0.0069530616 -0.12310822 -0.051336993 0.10060605 -0.20846555 -0.054573946 0.12555544 0.07355885 -0.13597158 -0.036717348 0.018990278 0.04198202 -0.06944418 -0.073954046 -0.0041760877 -0.0048586307 -0.09821366 0.06697671 -0.016734648 0.1207481 -0.040428802 0.0012868545 0.056344457 -0.04671586 -0.23299599 0.03133802 -0.15335363 -0.16713567 0.26801634 0.049193643 0.018998658 -0.037148297 0.013070805 0.060858496 -0.030893844 -0.014348724 -0.089317255 -0.12113799 0.1579099 -0.15444665 -0.03603156 0.06238296 -0.085475296 -0.19168562 0.09250712 -0.05406227 -0.034378715 0.0032318733 0.07389509 0.18694362 -0.040336188 -0.061677054 -0.040689692 0.010877759 -0.10972707 -0.0343921 0.0245119 -0.10603026 -0.031797156 -0.10151406 0.15333575 -0.015062252 -0.040964533 -0.052234508 -0.13544627 -0.008219489 -0.21657246 0.059802715 0.018300055 -0.002368247 0.090905465
12 -0.090633325 -0.22384012 0.08068633 0.050828118 0.094945386 -0.145321 0.11884147 0.13170968 0.067827046 0.032369014 -0.052256513 0.09268741 0.026197838 -0.16582713 0.025272215 -0.2617933 0.0050026868 -0.1527696 0.048167545 0.010152672 0.23297092 -0.00771428 0.08075878 0.08621224 0.07962078 0.04519717 -0.0036975436 0.07005064 0.06941549 0.12765242 -0.17215544 0.021267155 -0.06986334 0.10870726 -0.0913759 -0.21167745 0.28984645 0.03998507 0.027266605 -0.029157132 -0.12934016 -0.0041173617 0.06792285 0.24933767 -0.04262847 0.15392281 0.00810386 -0.035015747 -0.05333153 0.07912648 -0.059970703 0.06736636 0.11137673 0.1513441 -0.24144611 -0.0850193 -0.09299042 -0.009669676 -0.103314206 -0.060955662 0.13689822 -0.21432486 -0.047796782 0.14045385 0.018725827 -0.088800155 -0.03037107 0.025459353 0.06911984 -0.10822137 -0.10431342 -0.029720329 -0.024812855 -0.09799528 0.1391419 0.020543313 0.14363931 -0.063842565 0.009636352 -0.053012498 -0.06450452 -0.15261157 0.017742371 -0.13240677 -0.20167209 0.1463996 0.121293336 -0.01649394 -0.00551749 0.029014667 0.0961738 -0.056651007 0.024510676 -0.065533 -0.15758958 0.120403185 -0.12663886 -0.12569614 0.089630164 0.0018618507 -0.17852104 0.08159001 -0.12008315 -0.016861403 -0.017777797 0.04515911 0.16360347 -0.06329986 -0.049886078 -0.0893748 0.016050644 -0.048244935 -0.012225985 0.03337485 -0.16307591 -0.006367331 -0.07609511 0.17611736 -0.036648374 -0.080418475 -0.040559936 -0.11490466 0.06729374 -0.21523269 -0.03912658 -0.04666083 0.0062567573 0.12654805
